<?xml version="1.0"?>
<opencv_storage>
<cascade>
  <stageType>BOOST</stageType>
  <featureType>LBP</featureType>
  <height>80</height>
  <width>40</width>
  <stageParams>
    <boostType>GAB</boostType>
    <minHitRate>9.9500000476837158e-01</minHitRate>
    <maxFalseAlarm>5.0000000000000000e-01</maxFalseAlarm>
    <weightTrimRate>9.4999999999999996e-01</weightTrimRate>
    <maxDepth>1</maxDepth>
    <maxWeakCount>100</maxWeakCount></stageParams>
  <featureParams>
    <maxCatCount>256</maxCatCount>
    <featSize>1</featSize></featureParams>
  <stageNum>11</stageNum>
  <stages>
    <!-- stage 0 -->
    <_>
      <maxWeakCount>3</maxWeakCount>
      <stageThreshold>-9.8659449815750122e-01</stageThreshold>
      <weakClassifiers>
        <_>
          <internalNodes>
            0 -1 9 -70254593 -6560777 1191269727 -1584833 -910321493
            -89636677 -292957189 2145351539</internalNodes>
          <leafValues>
            -9.4058227539062500e-01 7.3733192682266235e-01</leafValues></_>
        <_>
          <internalNodes>
            0 -1 34 -203423745 580760543 -792293225 -1534725357
            -632370705 462063627 -322713093 -3345</internalNodes>
          <leafValues>
            -8.6662918329238892e-01 8.0099684000015259e-01</leafValues></_>
        <_>
          <internalNodes>
            0 -1 1 -2883661 -245891817 -251636845 -79173501 1082253475
            -116191992 -338566493 -655365</internalNodes>
          <leafValues>
            -8.4456664323806763e-01 8.2061702013015747e-01</leafValues></_></weakClassifiers></_>
    <!-- stage 1 -->
    <_>
      <maxWeakCount>3</maxWeakCount>
      <stageThreshold>-1.0015462636947632e+00</stageThreshold>
      <weakClassifiers>
        <_>
          <internalNodes>
            0 -1 22 1073724927 1004270927 -610805249 -33579073
            2144074495 2144313547 -34619393 -1049601</internalNodes>
          <leafValues>
            -9.0593767166137695e-01 7.0706003904342651e-01</leafValues></_>
        <_>
          <internalNodes>
            0 -1 4 -135266305 1440742239 -36243969 -1846801 -268444161
            2129653499 -2117641 -67764361</internalNodes>
          <leafValues>
            -8.6418783664703369e-01 7.6834434270858765e-01</leafValues></_>
        <_>
          <internalNodes>
            0 -1 27 -83886481 -758647889 -763146221 -535670818
            -614465701 1929568798 -620237997 -226759825</internalNodes>
          <leafValues>
            -8.3924949169158936e-01 7.6857930421829224e-01</leafValues></_></weakClassifiers></_>
    <!-- stage 2 -->
    <_>
      <maxWeakCount>2</maxWeakCount>
      <stageThreshold>-2.7329292893409729e-01</stageThreshold>
      <weakClassifiers>
        <_>
          <internalNodes>
            0 -1 7 2138537983 1068983231 -547489793 -3299329 2075884543
            -136709 -7602689 -1025</internalNodes>
          <leafValues>
            -8.7968218326568604e-01 7.6576578617095947e-01</leafValues></_>
        <_>
          <internalNodes>
            0 -1 13 -720976 -136998093 -588010209 -49385 -140120331
            1960967061 -51914498 -1</internalNodes>
          <leafValues>
            -9.5179754495620728e-01 6.0638922452926636e-01</leafValues></_></weakClassifiers></_>
    <!-- stage 3 -->
    <_>
      <maxWeakCount>3</maxWeakCount>
      <stageThreshold>-1.2600317001342773e+00</stageThreshold>
      <weakClassifiers>
        <_>
          <internalNodes>
            0 -1 30 -524289 -543190785 -6291469 -121898177 -536870913
            -807799829 -303039489 -184680465</internalNodes>
          <leafValues>
            -8.4562999010086060e-01 6.9819819927215576e-01</leafValues></_>
        <_>
          <internalNodes>
            0 -1 6 -36733385 -52431365 -555797889 -268446897 2136952703
            2140258791 2069594047 -1049601</internalNodes>
          <leafValues>
            -9.0176481008529663e-01 5.6815046072006226e-01</leafValues></_>
        <_>
          <internalNodes>
            0 -1 11 2147434495 1039823866 -415367681 -74186849
            1610579964 1707145947 -68452388 2146388735</internalNodes>
          <leafValues>
            -9.4430774450302124e-01 4.8736312985420227e-01</leafValues></_></weakClassifiers></_>
    <!-- stage 4 -->
    <_>
      <maxWeakCount>3</maxWeakCount>
      <stageThreshold>-1.0419795513153076e+00</stageThreshold>
      <weakClassifiers>
        <_>
          <internalNodes>
            0 -1 20 -721554177 -234881281 -94371841 -50463745 -18116673
            -1612279925 -354423121 -167776337</internalNodes>
          <leafValues>
            -8.4358829259872437e-01 6.5532380342483521e-01</leafValues></_>
        <_>
          <internalNodes>
            0 -1 26 805257215 805272055 -35259521 -1571 -896598529
            2080104443 -1175454721 -4161</internalNodes>
          <leafValues>
            -8.9000302553176880e-01 5.9323215484619141e-01</leafValues></_>
        <_>
          <internalNodes>
            0 -1 5 -671097025 -67108865 -843736065 -5420 -576734465
            -10049 -336598017 -134876425</internalNodes>
          <leafValues>
            -7.8414678573608398e-01 6.9161170721054077e-01</leafValues></_></weakClassifiers></_>
    <!-- stage 5 -->
    <_>
      <maxWeakCount>3</maxWeakCount>
      <stageThreshold>-1.0913670063018799e+00</stageThreshold>
      <weakClassifiers>
        <_>
          <internalNodes>
            0 -1 33 -34078753 400555867 -582492329 -1361250561
            -676214017 1923530831 -242487089 -1048577</internalNodes>
          <leafValues>
            -8.3835947513580322e-01 5.2419352531433105e-01</leafValues></_>
        <_>
          <internalNodes>
            0 -1 2 -1074840717 -33559681 1717564927 -19865 1979152375
            -101058344 1961047023 -168297729</internalNodes>
          <leafValues>
            -8.5415011644363403e-01 5.0580602884292603e-01</leafValues></_>
        <_>
          <internalNodes>
            0 -1 25 -85983697 -610286793 -254703177 -1307324673
            -850437374 -952761087 -35651757 -714080257</internalNodes>
          <leafValues>
            -7.5881361961364746e-01 6.0214984416961670e-01</leafValues></_></weakClassifiers></_>
    <!-- stage 6 -->
    <_>
      <maxWeakCount>2</maxWeakCount>
      <stageThreshold>-3.8304734230041504e-01</stageThreshold>
      <weakClassifiers>
        <_>
          <internalNodes>
            0 -1 0 -787021 -570965281 -578827273 -270024577 -40384297
            -1425043295 -906499129 -270144793</internalNodes>
          <leafValues>
            -8.6034595966339111e-01 4.3434342741966248e-01</leafValues></_>
        <_>
          <internalNodes>
            0 -1 15 -16777217 -1613841 -570823521 1694404031 -910168833
            -672407261 -993071425 -462953737</internalNodes>
          <leafValues>
            -8.1739079952239990e-01 5.4149371385574341e-01</leafValues></_></weakClassifiers></_>
    <!-- stage 7 -->
    <_>
      <maxWeakCount>4</maxWeakCount>
      <stageThreshold>-8.7532889842987061e-01</stageThreshold>
      <weakClassifiers>
        <_>
          <internalNodes>
            0 -1 32 -1140850689 502791663 -247205445 -1078206509
            -259800065 999280781 -687345713 -533</internalNodes>
          <leafValues>
            -8.3847099542617798e-01 4.7665369510650635e-01</leafValues></_>
        <_>
          <internalNodes>
            0 -1 14 -2809996 -40502787 -48780334 -15730217 -1060932
            -105069607 -106184966 -50995229</internalNodes>
          <leafValues>
            -8.8887798786163330e-01 4.7031405568122864e-01</leafValues></_>
        <_>
          <internalNodes>
            0 -1 19 -184749569 -59393089 -258817513 -16909385 -273028181
            -399669365 -1364476949 1931996039</internalNodes>
          <leafValues>
            -8.9033359289169312e-01 4.3055665493011475e-01</leafValues></_>
        <_>
          <internalNodes>
            0 -1 17 771174383 1066397695 -842424609 -1077149733
            2142926335 -67118661 -477381905 -537919781</internalNodes>
          <leafValues>
            -8.5478323698043823e-01 4.2722901701927185e-01</leafValues></_></weakClassifiers></_>
    <!-- stage 8 -->
    <_>
      <maxWeakCount>4</maxWeakCount>
      <stageThreshold>-8.2009953260421753e-01</stageThreshold>
      <weakClassifiers>
        <_>
          <internalNodes>
            0 -1 3 -369102337 2136828451 -904685217 -658753 -318791473
            2062256879 -872951049 -655385</internalNodes>
          <leafValues>
            -8.6843854188919067e-01 3.8165938854217529e-01</leafValues></_>
        <_>
          <internalNodes>
            0 -1 24 -622855221 928251227 1073862114 840167755 -205000177
            1191691329 -372516769 -149685409</internalNodes>
          <leafValues>
            -7.6179063320159912e-01 5.2227556705474854e-01</leafValues></_>
        <_>
          <internalNodes>
            0 -1 29 -658636817 -36831474 1751364421 -56233061 925843131
            1875616426 -213147005 1005581231</internalNodes>
          <leafValues>
            -7.7839213609695435e-01 4.9618929624557495e-01</leafValues></_>
        <_>
          <internalNodes>
            0 -1 12 -536920066 -67162162 561543093 2145343165
            -1462010883 1883335342 -121406723 2144300011</internalNodes>
          <leafValues>
            -9.4564235210418701e-01 4.1134405136108398e-01</leafValues></_></weakClassifiers></_>
    <!-- stage 9 -->
    <_>
      <maxWeakCount>4</maxWeakCount>
      <stageThreshold>-6.3111335039138794e-01</stageThreshold>
      <weakClassifiers>
        <_>
          <internalNodes>
            0 -1 8 -2130049 2072376060 -619647017 -82002049 2124118911
            -1523969 -543294545 -74450037</internalNodes>
          <leafValues>
            -8.5542166233062744e-01 3.5294118523597717e-01</leafValues></_>
        <_>
          <internalNodes>
            0 -1 16 -136331517 -6295901 -1467345189 1029695647
            -2075845121 986479498 -876144161 -7352353</internalNodes>
          <leafValues>
            -7.0820778608322144e-01 5.1916104555130005e-01</leafValues></_>
        <_>
          <internalNodes>
            0 -1 21 -537397281 -40516077 -184422127 -583011553
            -1912747009 991813551 -1587556175 16776191</internalNodes>
          <leafValues>
            -8.7469607591629028e-01 4.3629685044288635e-01</leafValues></_>
        <_>
          <internalNodes>
            0 -1 31 -157300054 -876098226 -1064123766 -225722198
            -1779568038 50954500 1934354631 -746851361</internalNodes>
          <leafValues>
            -6.2851947546005249e-01 6.1656844615936279e-01</leafValues></_></weakClassifiers></_>
    <!-- stage 10 -->
    <_>
      <maxWeakCount>4</maxWeakCount>
      <stageThreshold>-4.8714503645896912e-01</stageThreshold>
      <weakClassifiers>
        <_>
          <internalNodes>
            0 -1 18 -538455413 -1559764702 1075675138 -203451941
            -552933685 -2142795646 -773594425 -675282961</internalNodes>
          <leafValues>
            -6.6888773441314697e-01 6.2231761217117310e-01</leafValues></_>
        <_>
          <internalNodes>
            0 -1 23 -1886666913 804779509 -583939651 -4206293 1805194095
            1604837789 1821290395 -263185</internalNodes>
          <leafValues>
            -8.0190515518188477e-01 4.6799021959304810e-01</leafValues></_>
        <_>
          <internalNodes>
            0 -1 10 1945118366 -47075969 -302593254 -1109007730
            2128567277 -70522231 -68105793 -168309033</internalNodes>
          <leafValues>
            -7.4194806814193726e-01 4.7797620296478271e-01</leafValues></_>
        <_>
          <internalNodes>
            0 -1 28 -136331339 894777671 1090598491 830600855 -395756633
            -911534853 -87176517 2045243303</internalNodes>
          <leafValues>
            -7.1846926212310791e-01 5.0567167997360229e-01</leafValues></_></weakClassifiers></_></stages>
  <features>
    <_>
      <rect>
        0 0 8 26</rect></_>
    <_>
      <rect>
        0 3 8 22</rect></_>
    <_>
      <rect>
        0 24 8 8</rect></_>
    <_>
      <rect>
        0 40 6 8</rect></_>
    <_>
      <rect>
        0 43 6 6</rect></_>
    <_>
      <rect>
        0 43 8 7</rect></_>
    <_>
      <rect>
        0 65 5 5</rect></_>
    <_>
      <rect>
        0 65 11 5</rect></_>
    <_>
      <rect>
        0 71 9 3</rect></_>
    <_>
      <rect>
        1 38 10 14</rect></_>
    <_>
      <rect>
        2 36 7 5</rect></_>
    <_>
      <rect>
        3 11 12 15</rect></_>
    <_>
      <rect>
        4 5 9 16</rect></_>
    <_>
      <rect>
        4 7 10 24</rect></_>
    <_>
      <rect>
        7 34 10 7</rect></_>
    <_>
      <rect>
        10 0 10 10</rect></_>
    <_>
      <rect>
        12 11 5 11</rect></_>
    <_>
      <rect>
        13 68 9 4</rect></_>
    <_>
      <rect>
        15 21 1 3</rect></_>
    <_>
      <rect>
        16 2 8 23</rect></_>
    <_>
      <rect>
        16 19 8 14</rect></_>
    <_>
      <rect>
        16 31 8 16</rect></_>
    <_>
      <rect>
        16 65 8 5</rect></_>
    <_>
      <rect>
        17 65 7 3</rect></_>
    <_>
      <rect>
        18 11 3 8</rect></_>
    <_>
      <rect>
        18 15 4 7</rect></_>
    <_>
      <rect>
        18 71 7 3</rect></_>
    <_>
      <rect>
        19 10 4 8</rect></_>
    <_>
      <rect>
        19 21 3 8</rect></_>
    <_>
      <rect>
        19 21 7 18</rect></_>
    <_>
      <rect>
        19 42 7 6</rect></_>
    <_>
      <rect>
        20 19 1 2</rect></_>
    <_>
      <rect>
        24 56 5 8</rect></_>
    <_>
      <rect>
        28 53 4 9</rect></_>
    <_>
      <rect>
        28 57 4 6</rect></_></features></cascade>
</opencv_storage>

