<?xml version="1.0"?>
<opencv_storage>
<cascade>
  <stageType>BOOST</stageType>
  <featureType>LBP</featureType>
  <height>80</height>
  <width>40</width>
  <stageParams>
    <boostType>GAB</boostType>
    <minHitRate>9.9500000476837158e-01</minHitRate>
    <maxFalseAlarm>5.0000000000000000e-01</maxFalseAlarm>
    <weightTrimRate>9.4999999999999996e-01</weightTrimRate>
    <maxDepth>1</maxDepth>
    <maxWeakCount>100</maxWeakCount></stageParams>
  <featureParams>
    <maxCatCount>256</maxCatCount>
    <featSize>1</featSize></featureParams>
  <stageNum>10</stageNum>
  <stages>
    <!-- stage 0 -->
    <_>
      <maxWeakCount>2</maxWeakCount>
      <stageThreshold>-1.9013880193233490e-01</stageThreshold>
      <weakClassifiers>
        <_>
          <internalNodes>
            0 -1 9 -70255617 -40639497 1191265631 -546844365 -913733461
            -89636678 -1937157157 2145351539</internalNodes>
          <leafValues>
            -9.4174754619598389e-01 7.6023977994918823e-01</leafValues></_>
        <_>
          <internalNodes>
            0 -1 17 -252250881 -799941291 1612929723 -800328957
            -1069301505 -591279038 -535721825 -799547689</internalNodes>
          <leafValues>
            -9.0347629785537720e-01 7.5160878896713257e-01</leafValues></_></weakClassifiers></_>
    <!-- stage 1 -->
    <_>
      <maxWeakCount>3</maxWeakCount>
      <stageThreshold>-9.7360348701477051e-01</stageThreshold>
      <weakClassifiers>
        <_>
          <internalNodes>
            0 -1 20 1073200639 1071247855 -1282027009 -139329 2145073919
            2079297963 -5259265 -1048837</internalNodes>
          <leafValues>
            -9.0588235855102539e-01 7.4693876504898071e-01</leafValues></_>
        <_>
          <internalNodes>
            0 -1 4 -673186817 1979668959 -719858853 -538184705 -20978449
            2127547791 -578898185 -67633289</internalNodes>
          <leafValues>
            -8.2374584674835205e-01 8.3723938465118408e-01</leafValues></_>
        <_>
          <internalNodes>
            0 -1 23 -285217025 -227294589 -1258495754 -1563246005
            -245376353 -1056790418 1416611543 -497816781</internalNodes>
          <leafValues>
            -8.5091221332550049e-01 7.5602471828460693e-01</leafValues></_></weakClassifiers></_>
    <!-- stage 2 -->
    <_>
      <maxWeakCount>2</maxWeakCount>
      <stageThreshold>-2.6351618766784668e-01</stageThreshold>
      <weakClassifiers>
        <_>
          <internalNodes>
            0 -1 6 2146664319 2044198263 -671615521 -8653601 1808482175
            -6563701 -339755009 -71570449</internalNodes>
          <leafValues>
            -8.9001446962356567e-01 7.6200419664382935e-01</leafValues></_>
        <_>
          <internalNodes>
            0 -1 1 -2752528 -533573 -668082769 -1572993 -43653899
            -172639353 -826301188 -268436737</internalNodes>
          <leafValues>
            -9.4105076789855957e-01 6.2649828195571899e-01</leafValues></_></weakClassifiers></_>
    <!-- stage 3 -->
    <_>
      <maxWeakCount>3</maxWeakCount>
      <stageThreshold>-1.1428699493408203e+00</stageThreshold>
      <weakClassifiers>
        <_>
          <internalNodes>
            0 -1 30 -1613234177 736092079 -196881921 -1596194865
            -167251297 1353179950 -371326993 -2097153</internalNodes>
          <leafValues>
            -8.9060091972351074e-01 6.2955856323242188e-01</leafValues></_>
        <_>
          <internalNodes>
            0 -1 13 1910456319 902525682 -1182008865 1974763935
            1810529756 833283007 -17891585 2147474411</internalNodes>
          <leafValues>
            -9.1061508655548096e-01 5.7219535112380981e-01</leafValues></_>
        <_>
          <internalNodes>
            0 -1 2 -1572897 2011103287 1917051643 -2755873 -119824465
            2147457671 -757598217 -1708297</internalNodes>
          <leafValues>
            -8.1750881671905518e-01 6.5834605693817139e-01</leafValues></_></weakClassifiers></_>
    <!-- stage 4 -->
    <_>
      <maxWeakCount>3</maxWeakCount>
      <stageThreshold>-1.1117007732391357e+00</stageThreshold>
      <weakClassifiers>
        <_>
          <internalNodes>
            0 -1 16 805257215 805301247 -612114981 -2111009 2145484223
            2145237211 -72624209 -4211729</internalNodes>
          <leafValues>
            -9.4684386253356934e-01 5.6338030099868774e-01</leafValues></_>
        <_>
          <internalNodes>
            0 -1 26 -149440513 -133125 2010627007 1491065471 -606606337
            1665131519 -52430945 -184684561</internalNodes>
          <leafValues>
            -8.1635415554046631e-01 6.5395450592041016e-01</leafValues></_>
        <_>
          <internalNodes>
            0 -1 0 -2883661 -69743009 -808218281 -68686673 1538756535
            793351343 -608870201 -4851721</internalNodes>
          <leafValues>
            -8.2702982425689697e-01 6.5149724483489990e-01</leafValues></_></weakClassifiers></_>
    <!-- stage 5 -->
    <_>
      <maxWeakCount>3</maxWeakCount>
      <stageThreshold>-1.0530619621276855e+00</stageThreshold>
      <weakClassifiers>
        <_>
          <internalNodes>
            0 -1 27 -671088641 -1312497 428204443 2055195603 -614727681
            1796210419 -722470993 -186777601</internalNodes>
          <leafValues>
            -8.5736197233200073e-01 5.9652507305145264e-01</leafValues></_>
        <_>
          <internalNodes>
            0 -1 25 -94376305 -1277711777 34161035 571734087 -238083254
            -247004893 -674269073 -750523521</internalNodes>
          <leafValues>
            -7.9992395639419556e-01 6.3890725374221802e-01</leafValues></_>
        <_>
          <internalNodes>
            0 -1 3 -604136657 -69211653 -1866257969 -1034 -1582605569
            -85200929 -1462801425 1975902951</internalNodes>
          <leafValues>
            -7.9176813364028931e-01 6.0422402620315552e-01</leafValues></_></weakClassifiers></_>
    <!-- stage 6 -->
    <_>
      <maxWeakCount>3</maxWeakCount>
      <stageThreshold>-1.0128333568572998e+00</stageThreshold>
      <weakClassifiers>
        <_>
          <internalNodes>
            0 -1 7 -1075894273 -8662593 -497027105 -35678501 871839703
            -1124431909 1973370363 -168821825</internalNodes>
          <leafValues>
            -8.4745764732360840e-01 5.7581573724746704e-01</leafValues></_>
        <_>
          <internalNodes>
            0 -1 18 -184549889 -187056145 -64281641 -1405224225
            -341320789 -74741013 -21761133 2143017979</internalNodes>
          <leafValues>
            -7.6849573850631714e-01 6.8078398704528809e-01</leafValues></_>
        <_>
          <internalNodes>
            0 -1 24 -290460049 -547368294 1548009875 -497811457
            -393884855 -250117375 -412095722 -209982657</internalNodes>
          <leafValues>
            -7.4018752574920654e-01 6.0312002897262573e-01</leafValues></_></weakClassifiers></_>
    <!-- stage 7 -->
    <_>
      <maxWeakCount>4</maxWeakCount>
      <stageThreshold>-6.2836641073226929e-01</stageThreshold>
      <weakClassifiers>
        <_>
          <internalNodes>
            0 -1 29 -1 1004010399 1394342135 -1348993505 -571617393
            1989399434 -77082641 -3147025</internalNodes>
          <leafValues>
            -7.4965983629226685e-01 6.9195401668548584e-01</leafValues></_>
        <_>
          <internalNodes>
            0 -1 10 -69767393 1784020447 -16654345 -119552887 2079031103
            2123075039 -1345 -1446949</internalNodes>
          <leafValues>
            -8.7136244773864746e-01 5.3163027763366699e-01</leafValues></_>
        <_>
          <internalNodes>
            0 -1 15 -16385 2146898367 -526731781 -1080874513 -1409478945
            1808278734 817961676 1066090079</internalNodes>
          <leafValues>
            -9.2499983310699463e-01 4.9638384580612183e-01</leafValues></_>
        <_>
          <internalNodes>
            0 -1 5 -745537665 1364051903 -812923105 -137372946
            -596689413 -554734785 -3538977 -169484299</internalNodes>
          <leafValues>
            -7.7697962522506714e-01 5.1466298103332520e-01</leafValues></_></weakClassifiers></_>
    <!-- stage 8 -->
    <_>
      <maxWeakCount>4</maxWeakCount>
      <stageThreshold>-5.0599491596221924e-01</stageThreshold>
      <weakClassifiers>
        <_>
          <internalNodes>
            0 -1 19 -38289441 -246842599 -1222442745 -41218161 890210239
            -273705025 -840056933 -184942657</internalNodes>
          <leafValues>
            -7.3721593618392944e-01 5.7725322246551514e-01</leafValues></_>
        <_>
          <internalNodes>
            0 -1 8 -657404066 -34109601 -48217688 -644507433 -289952803
            -341077073 -1967105 -190333965</internalNodes>
          <leafValues>
            -7.8605973720550537e-01 5.1141405105590820e-01</leafValues></_>
        <_>
          <internalNodes>
            0 -1 28 895088575 804778327 -725556421 -547360577 2073060235
            2113595409 -485822309 -4353</internalNodes>
          <leafValues>
            -8.3017122745513916e-01 4.5945295691490173e-01</leafValues></_>
        <_>
          <internalNodes>
            0 -1 21 -85984977 -673197217 -1005774861 -1330394165
            -976420031 1459667021 -1077179881 -214697089</internalNodes>
          <leafValues>
            -7.3964601755142212e-01 5.6895416975021362e-01</leafValues></_></weakClassifiers></_>
    <!-- stage 9 -->
    <_>
      <maxWeakCount>4</maxWeakCount>
      <stageThreshold>-5.9246116876602173e-01</stageThreshold>
      <weakClassifiers>
        <_>
          <internalNodes>
            0 -1 12 -1 -5505025 -1 1598029823 -17825905 -339837121
            -1224737057 -470810625</internalNodes>
          <leafValues>
            -6.3080686330795288e-01 7.5568181276321411e-01</leafValues></_>
        <_>
          <internalNodes>
            0 -1 22 -186843905 -40258609 -826217721 -27446293 -350228601
            1049598850 -8131677 1929590663</internalNodes>
          <leafValues>
            -8.7578511238098145e-01 4.7640416026115417e-01</leafValues></_>
        <_>
          <internalNodes>
            0 -1 14 1609665524 -577659971 -1759779846 -10513453
            -1429623876 -106083412 -1333062 -235406662</internalNodes>
          <leafValues>
            -8.7965536117553711e-01 4.4527947902679443e-01</leafValues></_>
        <_>
          <internalNodes>
            0 -1 11 2008379391 631371783 -737346157 -578169842
            1876918231 -100468346 2021982191 -41030008</internalNodes>
          <leafValues>
            -7.8735494613647461e-01 4.6885132789611816e-01</leafValues></_></weakClassifiers></_></stages>
  <features>
    <_>
      <rect>
        0 0 8 26</rect></_>
    <_>
      <rect>
        0 8 12 21</rect></_>
    <_>
      <rect>
        0 40 6 8</rect></_>
    <_>
      <rect>
        0 43 8 7</rect></_>
    <_>
      <rect>
        0 44 6 6</rect></_>
    <_>
      <rect>
        0 45 9 6</rect></_>
    <_>
      <rect>
        0 68 10 4</rect></_>
    <_>
      <rect>
        1 26 8 7</rect></_>
    <_>
      <rect>
        1 37 8 5</rect></_>
    <_>
      <rect>
        1 38 10 14</rect></_>
    <_>
      <rect>
        1 68 6 4</rect></_>
    <_>
      <rect>
        2 64 10 5</rect></_>
    <_>
      <rect>
        4 0 11 11</rect></_>
    <_>
      <rect>
        4 19 12 11</rect></_>
    <_>
      <rect>
        7 34 10 7</rect></_>
    <_>
      <rect>
        9 0 8 16</rect></_>
    <_>
      <rect>
        10 70 10 3</rect></_>
    <_>
      <rect>
        16 0 8 23</rect></_>
    <_>
      <rect>
        16 7 8 24</rect></_>
    <_>
      <rect>
        16 38 8 8</rect></_>
    <_>
      <rect>
        16 65 8 5</rect></_>
    <_>
      <rect>
        17 9 4 9</rect></_>
    <_>
      <rect>
        19 3 7 24</rect></_>
    <_>
      <rect>
        19 4 5 10</rect></_>
    <_>
      <rect>
        19 12 4 7</rect></_>
    <_>
      <rect>
        19 13 3 8</rect></_>
    <_>
      <rect>
        21 42 6 6</rect></_>
    <_>
      <rect>
        21 42 6 7</rect></_>
    <_>
      <rect>
        22 65 6 5</rect></_>
    <_>
      <rect>
        25 55 5 8</rect></_>
    <_>
      <rect>
        28 59 4 7</rect></_></features></cascade>
</opencv_storage>
