<?xml version="1.0"?>
<opencv_storage>
<cascade>
  <stageType>BOOST</stageType>
  <featureType>LBP</featureType>
  <height>80</height>
  <width>40</width>
  <stageParams>
    <boostType>GAB</boostType>
    <minHitRate>9.9500000476837158e-01</minHitRate>
    <maxFalseAlarm>5.0000000000000000e-01</maxFalseAlarm>
    <weightTrimRate>9.4999999999999996e-01</weightTrimRate>
    <maxDepth>1</maxDepth>
    <maxWeakCount>100</maxWeakCount></stageParams>
  <featureParams>
    <maxCatCount>256</maxCatCount>
    <featSize>1</featSize></featureParams>
  <stageNum>12</stageNum>
  <stages>
    <!-- stage 0 -->
    <_>
      <maxWeakCount>3</maxWeakCount>
      <stageThreshold>-1.1060609817504883e+00</stageThreshold>
      <weakClassifiers>
        <_>
          <internalNodes>
            0 -1 12 -134217729 395042717 -1157456481 1595003987
            -648295425 248125587 -120878646 2080373711</internalNodes>
          <leafValues>
            -9.1863209009170532e-01 7.5461256504058838e-01</leafValues></_>
        <_>
          <internalNodes>
            0 -1 1 -136055885 -178782957 554734267 -83375485 1757798579
            -107868919 -1452152665 -208276613</internalNodes>
          <leafValues>
            -8.3332788944244385e-01 7.9012322425842285e-01</leafValues></_>
        <_>
          <internalNodes>
            0 -1 31 805289919 255851807 -768390305 -251016441 1542805759
            788497805 -340006177 -1</internalNodes>
          <leafValues>
            -9.5428937673568726e-01 6.4589899778366089e-01</leafValues></_></weakClassifiers></_>
    <!-- stage 1 -->
    <_>
      <maxWeakCount>2</maxWeakCount>
      <stageThreshold>-2.5624692440032959e-01</stageThreshold>
      <weakClassifiers>
        <_>
          <internalNodes>
            0 -1 6 -1 -35914921 -572196385 -152729 -3162497 1726994318
            -205800473 -134877577</internalNodes>
          <leafValues>
            -8.9012271165847778e-01 7.3246026039123535e-01</leafValues></_>
        <_>
          <internalNodes>
            0 -1 29 -588981025 -65682465 -735542633 -62260593 -668736785
            -108934572 -237512037 1350563583</internalNodes>
          <leafValues>
            -9.4261026382446289e-01 6.3387578725814819e-01</leafValues></_></weakClassifiers></_>
    <!-- stage 2 -->
    <_>
      <maxWeakCount>3</maxWeakCount>
      <stageThreshold>-1.0812977552413940e+00</stageThreshold>
      <weakClassifiers>
        <_>
          <internalNodes>
            0 -1 8 2004844543 1073610719 -6946849 -536911873 2142206975
            -268817 -16789505 -1537</internalNodes>
          <leafValues>
            -8.5349613428115845e-01 8.1595093011856079e-01</leafValues></_>
        <_>
          <internalNodes>
            0 -1 38 -1210074113 685767679 -786113185 788520863 -99090497
            2077487611 -201851393 -2097153</internalNodes>
          <leafValues>
            -8.7933260202407837e-01 6.6310763359069824e-01</leafValues></_>
        <_>
          <internalNodes>
            0 -1 16 -167969283 -46800905 -550519873 -330958602
            -135930116 -168689777 -4 -511972609</internalNodes>
          <leafValues>
            -8.7325465679168701e-01 6.5153098106384277e-01</leafValues></_></weakClassifiers></_>
    <!-- stage 3 -->
    <_>
      <maxWeakCount>3</maxWeakCount>
      <stageThreshold>-1.2130303382873535e+00</stageThreshold>
      <weakClassifiers>
        <_>
          <internalNodes>
            0 -1 9 -32961 -537146625 -582500993 -133349 2110747515
            2125723791 -70288385 -2098225</internalNodes>
          <leafValues>
            -8.8625001907348633e-01 5.7457625865936279e-01</leafValues></_>
        <_>
          <internalNodes>
            0 -1 3 -1208009729 -20974625 1354235871 -17681 1441232823
            -256911217 1693916599 -185077793</internalNodes>
          <leafValues>
            -8.4716290235519409e-01 5.5776339769363403e-01</leafValues></_>
        <_>
          <internalNodes>
            0 -1 17 -36309136 -172951628 -384326982 -33554505 2138439614
            -91426404 -266242 -9961485</internalNodes>
          <leafValues>
            -8.8454377651214600e-01 5.2814251184463501e-01</leafValues></_></weakClassifiers></_>
    <!-- stage 4 -->
    <_>
      <maxWeakCount>2</maxWeakCount>
      <stageThreshold>-3.6526012420654297e-01</stageThreshold>
      <weakClassifiers>
        <_>
          <internalNodes>
            0 -1 23 1073692671 805174271 -23352577 -2236929 2146430975
            -67371329 -2098177 -1121</internalNodes>
          <leafValues>
            -8.8564479351043701e-01 6.3028168678283691e-01</leafValues></_>
        <_>
          <internalNodes>
            0 -1 15 1006583807 939216895 -1645215905 -1209402370
            2147221501 838576525 -275775587 1962671871</internalNodes>
          <leafValues>
            -9.0687829256057739e-01 5.2038466930389404e-01</leafValues></_></weakClassifiers></_>
    <!-- stage 5 -->
    <_>
      <maxWeakCount>3</maxWeakCount>
      <stageThreshold>-9.4265413284301758e-01</stageThreshold>
      <weakClassifiers>
        <_>
          <internalNodes>
            0 -1 36 -2097153 936900061 -666254377 -1076901541
            -1005993275 2038489795 -91432741 -525345</internalNodes>
          <leafValues>
            -7.4225121736526489e-01 6.6418701410293579e-01</leafValues></_>
        <_>
          <internalNodes>
            0 -1 33 -61605169 -214460649 -2147380477 -233667905
            -750552309 -788279287 2146168075 -216798381</internalNodes>
          <leafValues>
            -6.9459277391433716e-01 6.6881883144378662e-01</leafValues></_>
        <_>
          <internalNodes>
            0 -1 11 -34473006 -682365045 -855930489 -11547698 -343429675
            -729772389 -1886926436 -408424753</internalNodes>
          <leafValues>
            -8.6922174692153931e-01 5.4236483573913574e-01</leafValues></_></weakClassifiers></_>
    <!-- stage 6 -->
    <_>
      <maxWeakCount>4</maxWeakCount>
      <stageThreshold>-7.8244876861572266e-01</stageThreshold>
      <weakClassifiers>
        <_>
          <internalNodes>
            0 -1 7 -142639297 -136840785 -1583615497 -349572385
            1593800575 -5510159 1877966527 -263489</internalNodes>
          <leafValues>
            -8.7728458642959595e-01 4.8397436738014221e-01</leafValues></_>
        <_>
          <internalNodes>
            0 -1 25 -69209121 1465856443 -1610239778 -113 -1081093185
            -1143305987 -9472146 -303759420</internalNodes>
          <leafValues>
            -8.3168780803680420e-01 4.5855474472045898e-01</leafValues></_>
        <_>
          <internalNodes>
            0 -1 10 -2097365 -550511813 -537014553 2100289137 -70260593
            -356529793 -1639335585 1944116070</internalNodes>
          <leafValues>
            -8.1860840320587158e-01 4.9167674779891968e-01</leafValues></_>
        <_>
          <internalNodes>
            0 -1 22 -891305985 -1076110861 -1387548195 871750906
            -354586789 1005323647 -118850211 1039793919</internalNodes>
          <leafValues>
            -8.3695816993713379e-01 4.5488950610160828e-01</leafValues></_></weakClassifiers></_>
    <!-- stage 7 -->
    <_>
      <maxWeakCount>3</maxWeakCount>
      <stageThreshold>-1.2116534709930420e+00</stageThreshold>
      <weakClassifiers>
        <_>
          <internalNodes>
            0 -1 34 -1150028801 -1277198473 1023743795 978817939
            -1373634661 1071361959 -185606225 -452985857</internalNodes>
          <leafValues>
            -8.2978725433349609e-01 4.4507730007171631e-01</leafValues></_>
        <_>
          <internalNodes>
            0 -1 14 -1140901889 -23608361 -201859109 -766256765
            1741894641 -125064483 2007842815 -459931681</internalNodes>
          <leafValues>
            -8.2110905647277832e-01 4.6498686075210571e-01</leafValues></_>
        <_>
          <internalNodes>
            0 -1 32 805256123 798979029 1029568895 -1091 714279935
            -73565223 -616325665 -271905</internalNodes>
          <leafValues>
            -8.4685307741165161e-01 4.5261156558990479e-01</leafValues></_></weakClassifiers></_>
    <!-- stage 8 -->
    <_>
      <maxWeakCount>4</maxWeakCount>
      <stageThreshold>-6.9391047954559326e-01</stageThreshold>
      <weakClassifiers>
        <_>
          <internalNodes>
            0 -1 35 -1208483841 -1084492905 889804035 847222211
            -1437073413 802923487 -128713733 -184549393</internalNodes>
          <leafValues>
            -8.1486147642135620e-01 4.6476510167121887e-01</leafValues></_>
        <_>
          <internalNodes>
            0 -1 30 -84410577 -1219110569 27914331 573760895 -572053746
            -213417965 -1048065701 -682367113</internalNodes>
          <leafValues>
            -7.7317631244659424e-01 5.0486707687377930e-01</leafValues></_>
        <_>
          <internalNodes>
            0 -1 26 -134883332 1978433276 -1987990058 1973266981
            -392179746 -89218146 -284447030 1073687295</internalNodes>
          <leafValues>
            -8.8340592384338379e-01 4.4059178233146667e-01</leafValues></_>
        <_>
          <internalNodes>
            0 -1 4 -788549377 -752362734 -1870539618 -641612657
            -2102413185 682557711 -72291097 -52040985</internalNodes>
          <leafValues>
            -7.5029730796813965e-01 4.9948984384536743e-01</leafValues></_></weakClassifiers></_>
    <!-- stage 9 -->
    <_>
      <maxWeakCount>4</maxWeakCount>
      <stageThreshold>-6.5566742420196533e-01</stageThreshold>
      <weakClassifiers>
        <_>
          <internalNodes>
            0 -1 2 -794697 -2065710177 -90471717 -1981857365 -662192385
            -1428186981 -288896537 -132369</internalNodes>
          <leafValues>
            -6.8449199199676514e-01 5.9340661764144897e-01</leafValues></_>
        <_>
          <internalNodes>
            0 -1 37 769605535 894958045 -847232005 -45090855 1901687803
            2022686888 -981432081 -2622517</internalNodes>
          <leafValues>
            -8.9378577470779419e-01 4.0536293387413025e-01</leafValues></_>
        <_>
          <internalNodes>
            0 -1 18 1594115412 833877887 -831994626 -134278657
            -154862403 -101852760 -1097880836 -254017537</internalNodes>
          <leafValues>
            -8.1572842597961426e-01 4.0482813119888306e-01</leafValues></_>
        <_>
          <internalNodes>
            0 -1 27 -187829781 -181801433 1644342039 -57819261
            -1291613821 -1617722461 -1442594169 1628415875</internalNodes>
          <leafValues>
            -7.3778641223907471e-01 5.1778221130371094e-01</leafValues></_></weakClassifiers></_>
    <!-- stage 10 -->
    <_>
      <maxWeakCount>4</maxWeakCount>
      <stageThreshold>-1.6111053228378296e+00</stageThreshold>
      <weakClassifiers>
        <_>
          <internalNodes>
            0 -1 28 -219417970 -427585405 9666754 -1066421669 -215222717
            2228362 -140258649 -134218785</internalNodes>
          <leafValues>
            -7.1975237131118774e-01 5.2797555923461914e-01</leafValues></_>
        <_>
          <internalNodes>
            0 -1 0 -550813901 -745899182 269693959 -573868993
            -1317167185 -1072576123 -1912398897 -1082677761</internalNodes>
          <leafValues>
            -7.0723336935043335e-01 5.5056136846542358e-01</leafValues></_>
        <_>
          <internalNodes>
            0 -1 5 -786566193 1568403871 -1073527441 -2111265 -980838273
            2106433931 -133432129 905438183</internalNodes>
          <leafValues>
            -7.5897789001464844e-01 4.7828924655914307e-01</leafValues></_>
        <_>
          <internalNodes>
            0 -1 20 1334832379 -207713837 1905837017 1174394201
            -594585445 -10293071 -705991540 1693972343</internalNodes>
          <leafValues>
            -6.7286968231201172e-01 5.3382390737533569e-01</leafValues></_></weakClassifiers></_>
    <!-- stage 11 -->
    <_>
      <maxWeakCount>4</maxWeakCount>
      <stageThreshold>-6.3306492567062378e-01</stageThreshold>
      <weakClassifiers>
        <_>
          <internalNodes>
            0 -1 13 -2130049 800268691 -1760457249 -2299887 2080078655
            -74851968 -66335857 -7345509</internalNodes>
          <leafValues>
            -8.2841068506240845e-01 3.1240656971931458e-01</leafValues></_>
        <_>
          <internalNodes>
            0 -1 21 -605047314 -39984158 536986591 530250742 -531943973
            168324046 -929099553 -90440706</internalNodes>
          <leafValues>
            -6.7729145288467407e-01 4.9047854542732239e-01</leafValues></_>
        <_>
          <internalNodes>
            0 -1 19 -184617473 -57684149 -789614301 -151537134
            -202530677 -1381381688 -1559508311 -319558520</internalNodes>
          <leafValues>
            -6.9995146989822388e-01 4.8953476548194885e-01</leafValues></_>
        <_>
          <internalNodes>
            0 -1 24 -136364050 1037401047 -670817954 -1143486114
            1775970507 2043507350 -892630849 1842082046</internalNodes>
          <leafValues>
            -7.3599857091903687e-01 4.5777800679206848e-01</leafValues></_></weakClassifiers></_></stages>
  <features>
    <_>
      <rect>
        0 0 5 16</rect></_>
    <_>
      <rect>
        0 2 8 23</rect></_>
    <_>
      <rect>
        0 3 7 25</rect></_>
    <_>
      <rect>
        0 24 8 8</rect></_>
    <_>
      <rect>
        0 41 6 6</rect></_>
    <_>
      <rect>
        0 42 8 8</rect></_>
    <_>
      <rect>
        0 43 7 6</rect></_>
    <_>
      <rect>
        0 59 5 7</rect></_>
    <_>
      <rect>
        0 65 11 5</rect></_>
    <_>
      <rect>
        0 67 6 4</rect></_>
    <_>
      <rect>
        1 0 11 13</rect></_>
    <_>
      <rect>
        1 1 12 24</rect></_>
    <_>
      <rect>
        1 44 13 12</rect></_>
    <_>
      <rect>
        1 71 9 3</rect></_>
    <_>
      <rect>
        3 26 7 7</rect></_>
    <_>
      <rect>
        4 1 12 20</rect></_>
    <_>
      <rect>
        8 9 10 20</rect></_>
    <_>
      <rect>
        9 22 8 13</rect></_>
    <_>
      <rect>
        9 35 10 5</rect></_>
    <_>
      <rect>
        10 0 10 23</rect></_>
    <_>
      <rect>
        10 1 10 5</rect></_>
    <_>
      <rect>
        10 9 6 13</rect></_>
    <_>
      <rect>
        11 10 8 12</rect></_>
    <_>
      <rect>
        11 68 8 4</rect></_>
    <_>
      <rect>
        12 18 7 11</rect></_>
    <_>
      <rect>
        12 43 6 6</rect></_>
    <_>
      <rect>
        13 18 6 20</rect></_>
    <_>
      <rect>
        16 14 8 17</rect></_>
    <_>
      <rect>
        17 20 1 2</rect></_>
    <_>
      <rect>
        19 1 7 25</rect></_>
    <_>
      <rect>
        19 12 3 8</rect></_>
    <_>
      <rect>
        19 65 7 5</rect></_>
    <_>
      <rect>
        19 71 6 3</rect></_>
    <_>
      <rect>
        20 7 3 9</rect></_>
    <_>
      <rect>
        22 40 6 9</rect></_>
    <_>
      <rect>
        22 42 6 8</rect></_>
    <_>
      <rect>
        22 56 6 8</rect></_>
    <_>
      <rect>
        23 62 4 6</rect></_>
    <_>
      <rect>
        28 59 4 7</rect></_></features></cascade>
</opencv_storage>
