<?xml version="1.0"?>
<opencv_storage>
<cascade>
  <stageType>BOOST</stageType>
  <featureType>LBP</featureType>
  <height>80</height>
  <width>40</width>
  <stageParams>
    <boostType>GAB</boostType>
    <minHitRate>9.9500000476837158e-01</minHitRate>
    <maxFalseAlarm>5.0000000000000000e-01</maxFalseAlarm>
    <weightTrimRate>9.4999999999999996e-01</weightTrimRate>
    <maxDepth>1</maxDepth>
    <maxWeakCount>100</maxWeakCount></stageParams>
  <featureParams>
    <maxCatCount>256</maxCatCount>
    <featSize>1</featSize></featureParams>
  <stageNum>10</stageNum>
  <stages>
    <!-- stage 0 -->
    <_>
      <maxWeakCount>2</maxWeakCount>
      <stageThreshold>-1.9095918536186218e-01</stageThreshold>
      <weakClassifiers>
        <_>
          <internalNodes>
            0 -1 10 -70255617 -40639497 1157711199 -546844365 -913733461
            -89636694 -1937157157 2145351539</internalNodes>
          <leafValues>
            -9.4095385074615479e-01 7.5893771648406982e-01</leafValues></_>
        <_>
          <internalNodes>
            0 -1 17 -252250881 -799941291 1612927675 -800328957
            -1069301505 -591279038 -535721825 -799547689</internalNodes>
          <leafValues>
            -9.0196955204010010e-01 7.4999463558197021e-01</leafValues></_></weakClassifiers></_>
    <!-- stage 1 -->
    <_>
      <maxWeakCount>3</maxWeakCount>
      <stageThreshold>-9.7492092847824097e-01</stageThreshold>
      <weakClassifiers>
        <_>
          <internalNodes>
            0 -1 18 1073200639 1071247855 -1282027009 -33955905
            2145073919 2079297963 -5259265 -1048837</internalNodes>
          <leafValues>
            -9.0461999177932739e-01 7.4530273675918579e-01</leafValues></_>
        <_>
          <internalNodes>
            0 -1 4 -673186817 1979668959 -736636069 -538184705 -20978449
            2127547791 -578898185 -67633289</internalNodes>
          <leafValues>
            -8.2109570503234863e-01 8.3432024717330933e-01</leafValues></_>
        <_>
          <internalNodes>
            0 -1 21 -285217025 -227294589 -1260592906 -1563246005
            -245378401 -1056790418 1416611543 -497816781</internalNodes>
          <leafValues>
            -8.4960412979125977e-01 7.5079476833343506e-01</leafValues></_></weakClassifiers></_>
    <!-- stage 2 -->
    <_>
      <maxWeakCount>2</maxWeakCount>
      <stageThreshold>-2.6011568307876587e-01</stageThreshold>
      <weakClassifiers>
        <_>
          <internalNodes>
            0 -1 8 2146664319 2044198263 -671615521 -8653601 1808482175
            -6563701 -339755009 -71570449</internalNodes>
          <leafValues>
            -8.8872623443603516e-01 7.6445394754409790e-01</leafValues></_>
        <_>
          <internalNodes>
            0 -1 2 -2752528 -533573 -668082769 -1572993 -43653899
            -172638329 -826301188 -268436737</internalNodes>
          <leafValues>
            -9.4158911705017090e-01 6.2861055135726929e-01</leafValues></_></weakClassifiers></_>
    <!-- stage 3 -->
    <_>
      <maxWeakCount>3</maxWeakCount>
      <stageThreshold>-1.0276086330413818e+00</stageThreshold>
      <weakClassifiers>
        <_>
          <internalNodes>
            0 -1 26 -1 1073741823 -1 -1342177281 -134217729 2147483647
            -1 -1</internalNodes>
          <leafValues>
            -7.7200001478195190e-01 8.2249999046325684e-01</leafValues></_>
        <_>
          <internalNodes>
            0 -1 11 -134266881 903510526 -914628641 1905387387
            1808498652 837398191 1488846846 2147449323</internalNodes>
          <leafValues>
            -9.1626310348510742e-01 6.5623247623443604e-01</leafValues></_>
        <_>
          <internalNodes>
            0 -1 3 -546308161 2013253943 -876243461 -67766817 -326128641
            2146941353 -201633338 -67773449</internalNodes>
          <leafValues>
            -8.4156501293182373e-01 6.6065454483032227e-01</leafValues></_></weakClassifiers></_>
    <!-- stage 4 -->
    <_>
      <maxWeakCount>2</maxWeakCount>
      <stageThreshold>-3.2676216959953308e-01</stageThreshold>
      <weakClassifiers>
        <_>
          <internalNodes>
            0 -1 13 803160063 802946043 -1290805793 -2232865 2146074623
            2141039355 -74452049 -17665</internalNodes>
          <leafValues>
            -9.4518274068832397e-01 5.8211678266525269e-01</leafValues></_>
        <_>
          <internalNodes>
            0 -1 27 -6293573 719316891 -942423913 -1562384389 -69291025
            862566623 -86643761 -1029</internalNodes>
          <leafValues>
            -8.5465180873870850e-01 6.1842054128646851e-01</leafValues></_></weakClassifiers></_>
    <!-- stage 5 -->
    <_>
      <maxWeakCount>3</maxWeakCount>
      <stageThreshold>-9.2328059673309326e-01</stageThreshold>
      <weakClassifiers>
        <_>
          <internalNodes>
            0 -1 9 -1109448705 -80491169 -914817025 -277873209
            1676096503 -136593767 2012822207 -168558641</internalNodes>
          <leafValues>
            -8.5625964403152466e-01 6.0437375307083130e-01</leafValues></_>
        <_>
          <internalNodes>
            0 -1 20 -83887153 924568431 115395 -1574771089 -607158193
            -234548986 -39593649 -150732929</internalNodes>
          <leafValues>
            -7.5977873802185059e-01 6.3920933008193970e-01</leafValues></_>
        <_>
          <internalNodes>
            0 -1 5 -673194113 1842336255 -1642351297 -65 -1649673029
            -67119073 -536895777 -134873113</internalNodes>
          <leafValues>
            -7.0623022317886353e-01 7.2700381278991699e-01</leafValues></_></weakClassifiers></_>
    <!-- stage 6 -->
    <_>
      <maxWeakCount>3</maxWeakCount>
      <stageThreshold>-1.0716469287872314e+00</stageThreshold>
      <weakClassifiers>
        <_>
          <internalNodes>
            0 -1 0 -786509 -541359913 1271631095 -512763165 469207751
            -1080047473 -319309161 -1713169</internalNodes>
          <leafValues>
            -8.1981980800628662e-01 6.1157023906707764e-01</leafValues></_>
        <_>
          <internalNodes>
            0 -1 24 -153617409 -1759946949 -382505609 408141663
            -896537601 256890407 -53747777 -185732097</internalNodes>
          <leafValues>
            -8.1698834896087646e-01 5.6467205286026001e-01</leafValues></_>
        <_>
          <internalNodes>
            0 -1 12 -167922180 -38159427 -1349806317 -16515102 -84430882
            -1377286213 -5526338 -50877461</internalNodes>
          <leafValues>
            -8.0703949928283691e-01 5.6516122817993164e-01</leafValues></_></weakClassifiers></_>
    <!-- stage 7 -->
    <_>
      <maxWeakCount>4</maxWeakCount>
      <stageThreshold>-4.9768516421318054e-01</stageThreshold>
      <weakClassifiers>
        <_>
          <internalNodes>
            0 -1 6 -235046913 -1712471873 -108659497 -573334580
            1775075327 -107353416 -100696069 -1511445</internalNodes>
          <leafValues>
            -7.6575243473052979e-01 5.6046265363693237e-01</leafValues></_>
        <_>
          <internalNodes>
            0 -1 22 -188875809 -57894065 -123371721 -324406389
            1072163759 2070831915 -208929969 1001386919</internalNodes>
          <leafValues>
            -8.2390379905700684e-01 5.2390646934509277e-01</leafValues></_>
        <_>
          <internalNodes>
            0 -1 16 -119558201 -1646310731 -1138814817 1001628803
            937901407 1003315272 1273991943 2147481839</internalNodes>
          <leafValues>
            -8.2420051097869873e-01 5.1399791240692139e-01</leafValues></_>
        <_>
          <internalNodes>
            0 -1 19 -693376401 -538982957 -738018401 -1301032197
            -53483762 -111852991 -74450593 -142610977</internalNodes>
          <leafValues>
            -7.2941941022872925e-01 5.8995646238327026e-01</leafValues></_></weakClassifiers></_>
    <!-- stage 8 -->
    <_>
      <maxWeakCount>2</maxWeakCount>
      <stageThreshold>-3.8842597603797913e-01</stageThreshold>
      <weakClassifiers>
        <_>
          <internalNodes>
            0 -1 15 -752894465 -143401257 -440819770 -2105857
            -1141378129 -2127704 2004071086 -3866652</internalNodes>
          <leafValues>
            -8.5518908500671387e-01 5.3263956308364868e-01</leafValues></_>
        <_>
          <internalNodes>
            0 -1 1 -269232205 -1009262393 -1883004205 -6306165
            1261948327 -637198207 -355102829 2142632583</internalNodes>
          <leafValues>
            -8.6457788944244385e-01 4.6676307916641235e-01</leafValues></_></weakClassifiers></_>
    <!-- stage 9 -->
    <_>
      <maxWeakCount>4</maxWeakCount>
      <stageThreshold>-5.5108910799026489e-01</stageThreshold>
      <weakClassifiers>
        <_>
          <internalNodes>
            0 -1 25 -1117782081 1073730899 -934199133 -34740928
            1220987563 2143876424 -121053095 -5479</internalNodes>
          <leafValues>
            -7.8906250000000000e-01 5.0000000000000000e-01</leafValues></_>
        <_>
          <internalNodes>
            0 -1 7 -559041 -724706409 1949145559 -308313701 2067757951
            2014691723 -1185448977 -335545617</internalNodes>
          <leafValues>
            -8.7605792284011841e-01 4.3162497878074646e-01</leafValues></_>
        <_>
          <internalNodes>
            0 -1 23 -758398294 -892370238 -2147274624 1917812803
            -401884661 105087040 -1026169949 -212337809</internalNodes>
          <leafValues>
            -6.8484604358673096e-01 6.2515020370483398e-01</leafValues></_>
        <_>
          <internalNodes>
            0 -1 14 -100696065 -1644338189 -1982073649 -1129216829
            -1175507972 1306091735 -271622452 1507060447</internalNodes>
          <leafValues>
            -7.9056638479232788e-01 5.0981485843658447e-01</leafValues></_></weakClassifiers></_></stages>
  <features>
    <_>
      <rect>
        0 0 7 26</rect></_>
    <_>
      <rect>
        0 1 8 23</rect></_>
    <_>
      <rect>
        0 8 12 21</rect></_>
    <_>
      <rect>
        0 43 6 6</rect></_>
    <_>
      <rect>
        0 44 6 6</rect></_>
    <_>
      <rect>
        0 45 9 6</rect></_>
    <_>
      <rect>
        0 63 10 5</rect></_>
    <_>
      <rect>
        0 65 5 5</rect></_>
    <_>
      <rect>
        0 68 10 4</rect></_>
    <_>
      <rect>
        1 26 8 7</rect></_>
    <_>
      <rect>
        1 38 10 14</rect></_>
    <_>
      <rect>
        4 18 12 11</rect></_>
    <_>
      <rect>
        6 27 11 11</rect></_>
    <_>
      <rect>
        10 70 10 3</rect></_>
    <_>
      <rect>
        11 6 8 17</rect></_>
    <_>
      <rect>
        13 44 5 5</rect></_>
    <_>
      <rect>
        15 11 5 11</rect></_>
    <_>
      <rect>
        16 0 8 23</rect></_>
    <_>
      <rect>
        16 65 8 5</rect></_>
    <_>
      <rect>
        17 15 5 7</rect></_>
    <_>
      <rect>
        18 11 3 8</rect></_>
    <_>
      <rect>
        19 4 5 10</rect></_>
    <_>
      <rect>
        19 17 7 20</rect></_>
    <_>
      <rect>
        20 22 1 2</rect></_>
    <_>
      <rect>
        22 41 6 7</rect></_>
    <_>
      <rect>
        22 62 6 6</rect></_>
    <_>
      <rect>
        25 56 5 8</rect></_>
    <_>
      <rect>
        28 58 4 5</rect></_></features></cascade>
</opencv_storage>
